digraph Tree {
node [shape=box] ;
0 [label="Petal.Length <= 2.45\nentropy = 1.578\nsamples = 113\nvalue = [43, 36, 34]"] ;
1 [label="entropy = 0.0\nsamples = 43\nvalue = [43, 0, 0]"] ;
0 -> 1 [labeldistance=2.5, labelangle=45, headlabel="True"] ;
2 [label="Petal.Length <= 4.85\nentropy = 0.999\nsamples = 70\nvalue = [0, 36, 34]"] ;
0 -> 2 [labeldistance=2.5, labelangle=-45, headlabel="False"] ;
3 [label="Petal.Width <= 1.65\nentropy = 0.31\nsamples = 36\nvalue = [0, 34, 2]"] ;
2 -> 3 ;
4 [label="entropy = 0.0\nsamples = 33\nvalue = [0, 33, 0]"] ;
3 -> 4 ;
5 [label="entropy = 0.918\nsamples = 3\nvalue = [0, 1, 2]"] ;
3 -> 5 ;
6 [label="Petal.Width <= 1.75\nentropy = 0.323\nsamples = 34\nvalue = [0, 2, 32]"] ;
2 -> 6 ;
7 [label="entropy = 0.918\nsamples = 6\nvalue = [0, 2, 4]"] ;
6 -> 7 ;
8 [label="entropy = 0.0\nsamples = 28\nvalue = [0, 0, 28]"] ;
6 -> 8 ;
}